digraph Tree {
node [shape=box] ;
0 [label="gender_encoded <= 0.5\ngini = 0.473\nsamples = 891\nvalue = [549, 342]"] ;
1 [label="Pclass <= 2.5\ngini = 0.383\nsamples = 314\nvalue = [81, 233]"] ;
0 -> 1 [labeldistance=2.5, labelangle=45, headlabel="True"] ;
2 [label="Age <= 2.5\ngini = 0.1\nsamples = 170\nvalue = [9, 161]"] ;
1 -> 2 ;
3 [label="Fare <= 88.5\ngini = 0.5\nsamples = 2\nvalue = [1, 1]"] ;
2 -> 3 ;
4 [label="gini = 0.0\nsamples = 1\nvalue = [0, 1]"] ;
3 -> 4 ;
5 [label="gini = 0.0\nsamples = 1\nvalue = [1, 0]"] ;
3 -> 5 ;
6 [label="Fare <= 28.5\ngini = 0.091\nsamples = 168\nvalue = [8, 160]"] ;
2 -> 6 ;
7 [label="gini = 0.182\nsamples = 69\nvalue = [7, 62]"] ;
6 -> 7 ;
8 [label="gini = 0.02\nsamples = 99\nvalue = [1, 98]"] ;
6 -> 8 ;
9 [label="Fare <= 23.5\ngini = 0.5\nsamples = 144\nvalue = [72, 72]"] ;
1 -> 9 ;
10 [label="Age <= 36.5\ngini = 0.486\nsamples = 118\nvalue = [49, 69]"] ;
9 -> 10 ;
11 [label="gini = 0.475\nsamples = 111\nvalue = [43, 68]"] ;
10 -> 11 ;
12 [label="gini = 0.245\nsamples = 7\nvalue = [6, 1]"] ;
10 -> 12 ;
13 [label="Parch <= 0.5\ngini = 0.204\nsamples = 26\nvalue = [23, 3]"] ;
9 -> 13 ;
14 [label="gini = 0.0\nsamples = 1\nvalue = [0, 1]"] ;
13 -> 14 ;
15 [label="gini = 0.147\nsamples = 25\nvalue = [23, 2]"] ;
13 -> 15 ;
16 [label="Age <= 6.5\ngini = 0.306\nsamples = 577\nvalue = [468, 109]"] ;
0 -> 16 [labeldistance=2.5, labelangle=-45, headlabel="False"] ;
17 [label="Pclass <= 2.5\ngini = 0.444\nsamples = 24\nvalue = [8, 16]"] ;
16 -> 17 ;
18 [label="gini = 0.0\nsamples = 10\nvalue = [0, 10]"] ;
17 -> 18 ;
19 [label="Fare <= 20.5\ngini = 0.49\nsamples = 14\nvalue = [8, 6]"] ;
17 -> 19 ;
20 [label="gini = 0.0\nsamples = 5\nvalue = [0, 5]"] ;
19 -> 20 ;
21 [label="gini = 0.198\nsamples = 9\nvalue = [8, 1]"] ;
19 -> 21 ;
22 [label="Pclass <= 1.5\ngini = 0.28\nsamples = 553\nvalue = [460, 93]"] ;
16 -> 22 ;
23 [label="Age <= 53.0\ngini = 0.46\nsamples = 120\nvalue = [77, 43]"] ;
22 -> 23 ;
24 [label="gini = 0.483\nsamples = 98\nvalue = [58, 40]"] ;
23 -> 24 ;
25 [label="gini = 0.236\nsamples = 22\nvalue = [19, 3]"] ;
23 -> 25 ;
26 [label="Fare <= 51.0\ngini = 0.204\nsamples = 433\nvalue = [383, 50]"] ;
22 -> 26 ;
27 [label="gini = 0.193\nsamples = 417\nvalue = [372, 45]"] ;
26 -> 27 ;
28 [label="gini = 0.43\nsamples = 16\nvalue = [11, 5]"] ;
26 -> 28 ;
}