digraph Tree {
node [shape=box] ;
0 [label="gender_encoded <= 0.5\ngini = 0.477\nsamples = 596\nvalue = [362, 234]"] ;
1 [label="Pclass <= 2.5\ngini = 0.377\nsamples = 214\nvalue = [54, 160]"] ;
0 -> 1 [labeldistance=2.5, labelangle=45, headlabel="True"] ;
2 [label="Age <= 2.5\ngini = 0.066\nsamples = 117\nvalue = [4, 113]"] ;
1 -> 2 ;
3 [label="Fare <= 88.5\ngini = 0.5\nsamples = 2\nvalue = [1, 1]"] ;
2 -> 3 ;
4 [label="gini = 0.0\nsamples = 1\nvalue = [0, 1]"] ;
3 -> 4 ;
5 [label="gini = 0.0\nsamples = 1\nvalue = [1, 0]"] ;
3 -> 5 ;
6 [label="Fare <= 22.0\ngini = 0.051\nsamples = 115\nvalue = [3, 112]"] ;
2 -> 6 ;
7 [label="gini = 0.204\nsamples = 26\nvalue = [3, 23]"] ;
6 -> 7 ;
8 [label="gini = 0.0\nsamples = 89\nvalue = [0, 89]"] ;
6 -> 8 ;
9 [label="embarked_encoded <= 1.5\ngini = 0.5\nsamples = 97\nvalue = [50, 47]"] ;
1 -> 9 ;
10 [label="Fare <= 14.5\ngini = 0.414\nsamples = 41\nvalue = [12, 29]"] ;
9 -> 10 ;
11 [label="gini = 0.464\nsamples = 30\nvalue = [11, 19]"] ;
10 -> 11 ;
12 [label="gini = 0.165\nsamples = 11\nvalue = [1, 10]"] ;
10 -> 12 ;
13 [label="Age <= 27.5\ngini = 0.436\nsamples = 56\nvalue = [38, 18]"] ;
9 -> 13 ;
14 [label="gini = 0.499\nsamples = 29\nvalue = [15, 14]"] ;
13 -> 14 ;
15 [label="gini = 0.252\nsamples = 27\nvalue = [23, 4]"] ;
13 -> 15 ;
16 [label="Age <= 13.0\ngini = 0.312\nsamples = 382\nvalue = [308, 74]"] ;
0 -> 16 [labeldistance=2.5, labelangle=-45, headlabel="False"] ;
17 [label="Pclass <= 2.5\ngini = 0.454\nsamples = 23\nvalue = [8, 15]"] ;
16 -> 17 ;
18 [label="gini = 0.0\nsamples = 9\nvalue = [0, 9]"] ;
17 -> 18 ;
19 [label="Fare <= 24.5\ngini = 0.49\nsamples = 14\nvalue = [8, 6]"] ;
17 -> 19 ;
20 [label="gini = 0.0\nsamples = 6\nvalue = [0, 6]"] ;
19 -> 20 ;
21 [label="gini = 0.0\nsamples = 8\nvalue = [8, 0]"] ;
19 -> 21 ;
22 [label="Pclass <= 1.5\ngini = 0.275\nsamples = 359\nvalue = [300, 59]"] ;
16 -> 22 ;
23 [label="Age <= 43.0\ngini = 0.452\nsamples = 84\nvalue = [55, 29]"] ;
22 -> 23 ;
24 [label="gini = 0.493\nsamples = 50\nvalue = [28, 22]"] ;
23 -> 24 ;
25 [label="gini = 0.327\nsamples = 34\nvalue = [27, 7]"] ;
23 -> 25 ;
26 [label="Fare <= 48.5\ngini = 0.194\nsamples = 275\nvalue = [245, 30]"] ;
22 -> 26 ;
27 [label="gini = 0.173\nsamples = 261\nvalue = [236, 25]"] ;
26 -> 27 ;
28 [label="gini = 0.459\nsamples = 14\nvalue = [9, 5]"] ;
26 -> 28 ;
}